tree
version=v4
num_class=1
num_tree_per_iteration=1
label_index=0
max_feature_idx=17
objective=binary sigmoid:1
feature_names=Column_0 Column_1 Column_2 Column_3 Column_4 Column_5 Column_6 Column_7 Column_8 Column_9 Column_10 Column_11 Column_12 Column_13 Column_14 Column_15 Column_16 Column_17
feature_infos=[-1.7131345290908775:2.403415585238275] [-2.0417348684242906:2.4553001399108942] [-2.650969808393012:2.4457519796168263] [-2.8962553781936893:2.0767479835608409] [-2.7032322929992372:2.3146585666735087] [-2.5910422921449099:2.4632421124852861] [-2.1218548990085946:2.5733598032498604] [-2.9213504834946074:2.2706928578043959] [-2.4994057148735731:1.8466369960476658] [-2.8722622132816493:2.5797093376543185] [-3.2412673400690726:3.0788808084552377] [-2.1528905929524829:3.8527314906547212] [-1.5256563145700948:2.2988981236192503] [-1.9132802446577979:3.1931075678448608] [-2.5539211349019548:2.1573082132655035] [-2.1988059566200819:2.5581992856682523] [-2.6968866429415717:2.5269324258736217] [-2.8485426206300755:2.7201691665896188]
tree_sizes=455 460 565 461 568 464 464 464 464 466 464 461 466 464 462 465 464 462 464 464 461 568 460 462 462 464 462 462 463 465 460 461 460 463 463 465 465 462 570 464 463 464 463 463 468 460 461 462 462 465 460 464 565 458 565 463 465 465 467 465 465 467 464 466 465 463 463 464 464 464 463 461 463 464 466 466 467 466 467 467 465 465 462 463 459 462 462 465 463 465 568 464 567 569 466 460 462 462 462 464

Tree=0
num_leaves=3
num_cat=0
split_feature=5 7
split_gain=7.79294 3.92048
threshold=0.65434350204284264 0.24992221560320146
decision_type=2 2
left_child=1 -1
right_child=-2 -3
leaf_value=-0.078860558930248209 -0.16886516263164217 -0.13084951951575657
leaf_weight=9.2166999876499194 5.4801999926567069 5.9783999919891349
leaf_count=37 22 24
internal_value=-0.11775 -0.0993152
internal_weight=20.6753 15.1951
internal_count=83 61
is_linear=0
shrinkage=1


Tree=1
num_leaves=3
num_cat=0
split_feature=5 11
split_gain=7.21576 4.28557
threshold=0.05780171403574548 -0.14570889671304052
decision_type=2 2
left_child=1 -1
right_child=-2 -3
leaf_value=-0.005164682130958837 -0.029919972540570945 0.057018457392566828
leaf_weight=4.9874829649925232 9.4493342638015729 6.2341840118169802
leaf_count=20 38 25
internal_value=0.0022728 0.0293811
internal_weight=20.671 11.2217
internal_count=83 45
is_linear=0
shrinkage=0.05


Tree=2
num_leaves=4
num_cat=0
split_feature=5 10 14
split_gain=6.60152 4.75243 0.846741
threshold=0.65434350204284264 0.18786970312558002 0.098164135210972045
decision_type=2 2 2
left_child=1 2 -1
right_child=-2 -3 -4
leaf_value=0.024745093004784457 -0.045081234013226501 -0.019501879225255037 0.053877768159239781
leaf_weight=4.9869409799575823 5.4460218846797934 5.2371224015951148 4.9898247569799423
leaf_count=20 22 21 20
internal_value=0.00215857 0.0190687 0.0393156
internal_weight=20.6599 15.2139 9.97677
internal_count=83 61 40
is_linear=0
shrinkage=0.05


Tree=3
num_leaves=3
num_cat=0
split_feature=5 11
split_gain=6.10181 3.79324
threshold=0.05780171403574548 -0.14570889671304052
decision_type=2 2
left_child=1 -1
right_child=-2 -3
leaf_value=-0.005586260742167266 -0.027666834871372527 0.052884325823444482
leaf_weight=4.9891773909330368 9.4035331308841688 6.2467941641807574
leaf_count=20 38 25
internal_value=0.00205047 0.0269213
internal_weight=20.6395 11.236
internal_count=83 45
is_linear=0
shrinkage=0.05


Tree=4
num_leaves=4
num_cat=0
split_feature=2 13 8
split_gain=3.08147 3.96876 2.17294
threshold=1.0000000180025095e-35 0.20756978330353068 0.089980043912127966
decision_type=2 2 2
left_child=2 -2 -1
right_child=1 -3 -4
leaf_value=-0.0010410249643199177 0.015132414506444383 -0.046670927378676418 0.045132165117790335
leaf_weight=5.2229536175727862 4.9677819609642011 5.4444034099578857 4.9752719104290009
leaf_count=21 20 22 20
internal_value=0.00194983 -0.0171838 0.0214849
internal_weight=20.6104 10.4122 10.1982
internal_count=83 42 41
is_linear=0
shrinkage=0.05


Tree=5
num_leaves=3
num_cat=0
split_feature=0 14
split_gain=5.85423 3.92128
threshold=0.41163432135443495 -0.036455610430170891
decision_type=2 2
left_child=1 -1
right_child=-2 -3
leaf_value=0.01405739501557645 0.035957149155221878 -0.042904077477749797
leaf_weight=4.9787233769893655 7.1994898915290824 7.6852097511291513
leaf_count=20 29 31
internal_value=-4.35887e-05 -0.0205101
internal_weight=19.8634 12.6639
internal_count=80 51
is_linear=0
shrinkage=0.05


Tree=6
num_leaves=3
num_cat=0
split_feature=0 14
split_gain=5.28209 3.55112
threshold=0.41163432135443495 -0.036455610430170891
decision_type=2 2
left_child=1 -1
right_child=-2 -3
leaf_value=0.013347549503176579 0.034112118995599641 -0.040881742365133089
leaf_weight=4.981256678700448 7.2091708779335013 7.6626731902360925
leaf_count=20 29 31
internal_value=-4.31049e-05 -0.0195173
internal_weight=19.8531 12.6439
internal_count=80 51
is_linear=0
shrinkage=0.05


Tree=7
num_leaves=3
num_cat=0
split_feature=0 5
split_gain=4.76886 2.24407
threshold=0.41163432135443495 -0.21055412996731324
decision_type=2 2
left_child=1 -1
right_child=-2 -3
leaf_value=0.0019211256047989393 0.032383610958417276 -0.040267171077489949
leaf_weight=6.4858939200639734 7.2141207158565512 6.1321748346090326
leaf_count=26 29 25
internal_value=-4.26497e-05 -0.0185817
internal_weight=19.8322 12.6181
internal_count=80 51
is_linear=0
shrinkage=0.05


Tree=8
num_leaves=3
num_cat=0
split_feature=0 14
split_gain=4.30809 3.19252
threshold=0.41163432135443495 -0.036455610430170891
decision_type=2 2
left_child=1 -1
right_child=-2 -3
leaf_value=0.01343511250445184 0.030760538886815361 -0.038068930349240748
leaf_weight=4.9769756644964227 7.2149941474199286 7.6083188205957422
leaf_count=20 29 31
internal_value=-4.22834e-05 -0.0177012
internal_weight=19.8003 12.5853
internal_count=80 51
is_linear=0
shrinkage=0.05


Tree=9
num_leaves=3
num_cat=0
split_feature=12 12
split_gain=4.22041 2.89574
threshold=0.40903570632149228 -0.17380081368851855
decision_type=2 2
left_child=1 -1
right_child=-2 -3
leaf_value=0.0025301639127710868 0.031400323494369602 -0.045870651936270386
leaf_weight=7.6509019136428842 6.9304457157850257 5.1841953843832025
leaf_count=31 28 21
internal_value=-4.17974e-05 -0.0170193
internal_weight=19.7655 12.8351
internal_count=80 52
is_linear=0
shrinkage=0.05


Tree=10
num_leaves=3
num_cat=0
split_feature=5 0
split_gain=4.11757 4.20161
threshold=0.65434350204284264 -0.049252568191561701
decision_type=2 2
left_child=1 -1
right_child=-2 -3
leaf_value=0.035856261871274463 -0.048499035285951925 -0.018605295924749087
leaf_weight=5.9794218242168453 5.1151850670576087 8.6855831593275052
leaf_count=24 21 35
internal_value=-0.00987249 0.00360054
internal_weight=19.7802 14.665
internal_count=80 59
is_linear=0
shrinkage=0.05


Tree=11
num_leaves=3
num_cat=0
split_feature=5 12
split_gain=3.74923 3.81352
threshold=0.65434350204284264 0.40903570632149228
decision_type=2 2
left_child=1 -1
right_child=-2 -3
leaf_value=-0.014868091203855321 -0.04643504068669177 0.038967715453374324
leaf_weight=9.6832703799009341 5.0764114409685126 4.98178407549858
leaf_count=39 21 20
internal_value=-0.00939983 0.00342017
internal_weight=19.7415 14.6651
internal_count=80 59
is_linear=0
shrinkage=0.05


Tree=12
num_leaves=3
num_cat=0
split_feature=5 1
split_gain=3.41656 4.18936
threshold=0.65434350204284264 1.0000000180025095e-35
decision_type=2 2
left_child=1 -1
right_child=-2 -3
leaf_value=0.029586208019041767 -0.044492374571996701 -0.023884580315378899
leaf_weight=7.4377148449420947 5.0342383980751029 7.2181716412305832
leaf_count=30 21 29
internal_value=-0.00895548 0.00325131
internal_weight=19.6901 14.6559
internal_count=80 59
is_linear=0
shrinkage=0.05


Tree=13
num_leaves=3
num_cat=0
split_feature=2 6
split_gain=3.27162 3.05557
threshold=0.17873155699046608 -0.11343717186847041
decision_type=2 2
left_child=1 -1
right_child=-2 -3
leaf_value=-0.022360021553746015 -0.038049534290535536 0.026140323381038139
leaf_weight=5.6386426091194162 6.3513764888048163 7.6577484160661706
leaf_count=23 26 31
internal_value=-0.00852876 0.00557263
internal_weight=19.6478 13.2964
internal_count=80 54
is_linear=0
shrinkage=0.05


Tree=14
num_leaves=3
num_cat=0
split_feature=1 5
split_gain=3.06448 3.23621
threshold=-0.1340425004523054 0.05780171403574548
decision_type=2 2
left_child=1 -1
right_child=-2 -3
leaf_value=0.039595068790645782 -0.029357326168063042 -0.015964270091042072
leaf_weight=4.9654290527105349 9.1020221114158613 5.5510766208171844
leaf_count=20 37 23
internal_value=-0.00811597 0.0102684
internal_weight=19.6185 10.5165
internal_count=80 43
is_linear=0
shrinkage=0.05


Tree=15
num_leaves=3
num_cat=0
split_feature=12 2
split_gain=5.34186 4.14959
threshold=0.40903570632149228 0.10192623451975866
decision_type=2 2
left_child=1 -1
right_child=-2 -3
leaf_value=0.00054954678630646128 0.030580057309017191 -0.059027980241832825
leaf_weight=6.8853745758533496 6.8696701228618613 5.0782830268144608
leaf_count=28 28 21
internal_value=-0.00456117 -0.0247397
internal_weight=18.8333 11.9637
internal_count=77 49
is_linear=0
shrinkage=0.05


Tree=16
num_leaves=3
num_cat=0
split_feature=12 10
split_gain=4.83145 4.02867
threshold=0.40903570632149228 0.18786970312558002
decision_type=2 2
left_child=1 -1
right_child=-2 -3
leaf_value=0.0006034389258454013 0.029047043198039215 -0.058516079073082497
leaf_weight=7.0393641442060488 6.870581552386283 4.8788551539182663
leaf_count=29 28 20
internal_value=-0.00434693 -0.0235978
internal_weight=18.7888 11.9182
internal_count=77 49
is_linear=0
shrinkage=0.05


Tree=17
num_leaves=3
num_cat=0
split_feature=1 2
split_gain=4.48436 5.72064
threshold=-0.84122813132759899 0.17873155699046608
decision_type=2 2
left_child=-1 -2
right_child=1 -3
leaf_value=0.034456028198763977 0.0066852753731802151 -0.060253284380697852
leaf_weight=5.3697388023138073 8.117434620857237 5.2600083351135245
leaf_count=22 33 22
internal_value=-0.00414172 -0.019635
internal_weight=18.7472 13.3774
internal_count=77 55
is_linear=0
shrinkage=0.05


Tree=18
num_leaves=3
num_cat=0
split_feature=12 10
split_gain=4.20013 3.67903
threshold=0.40903570632149228 0.18786970312558002
decision_type=2 2
left_child=1 -1
right_child=-2 -3
leaf_value=0.0011290354227936148 0.027156470452017373 -0.055590942091479613
leaf_weight=7.0134028047323245 6.8687928318977347 4.8262713104486465
leaf_count=29 28 20
internal_value=-0.00394722 -0.021992
internal_weight=18.7085 11.8397
internal_count=77 49
is_linear=0
shrinkage=0.05


Tree=19
num_leaves=3
num_cat=0
split_feature=1 2
split_gain=3.93352 5.19724
threshold=-0.84122813132759899 0.17873155699046608
decision_type=2 2
left_child=-1 -2
right_child=1 -3
leaf_value=0.032337513074101258 0.0066807112373198614 -0.057415475241564089
leaf_weight=5.3727080225944546 8.0943771302700025 5.1907640397548667
leaf_count=22 33 22
internal_value=-0.00376324 -0.0183629
internal_weight=18.6578 13.2851
internal_count=77 55
is_linear=0
shrinkage=0.05


Tree=20
num_leaves=3
num_cat=0
split_feature=12 8
split_gain=3.21707 2.71362
threshold=0.40903570632149228 -0.33013561480206816
decision_type=2 2
left_child=1 -1
right_child=-2 -3
leaf_value=0.014966688054293737 0.027202150383447907 -0.033314060252071197
leaf_weight=4.8091012984514245 7.601186290383338 7.371042639017106
leaf_count=20 31 31
internal_value=0.00167762 -0.0142513
internal_weight=19.7813 12.1801
internal_count=82 51
is_linear=0
shrinkage=0.05


Tree=21
num_leaves=4
num_cat=0
split_feature=11 5 5
split_gain=2.71302 4.45462 2.44755
threshold=-0.042466796325910716 -0.21055412996731324 -0.12882907757312623
decision_type=2 2 2
left_child=2 -2 -1
right_child=1 -3 -4
leaf_value=-0.041865128150579106 0.054016906233675333 -0.014002597413145754 0.007354895610735864
leaf_weight=4.8996843099594116 4.8976617604494095 4.7333063185214979 5.2129693925380725
leaf_count=20 20 20 22
internal_value=0.00159509 0.0205875 -0.0164927
internal_weight=19.7436 9.63097 10.1127
internal_count=82 40 42
is_linear=0
shrinkage=0.05


Tree=22
num_leaves=3
num_cat=0
split_feature=12 8
split_gain=2.74772 2.4555
threshold=0.40903570632149228 -0.33013561480206816
decision_type=2 2
left_child=1 -1
right_child=-2 -3
leaf_value=0.014523185936370859 0.02515863369164344 -0.031469619416036251
leaf_weight=4.8085535168647775 7.5687903910875312 7.3192709386348733
leaf_count=20 31 31
internal_value=0.00151911 -0.013234
internal_weight=19.6966 12.1278
internal_count=82 51
is_linear=0
shrinkage=0.05


Tree=23
num_leaves=3
num_cat=0
split_feature=12 8
split_gain=2.48462 2.22905
threshold=0.40903570632149228 -0.33013561480206816
decision_type=2 2
left_child=1 -1
right_child=-2 -3
leaf_value=0.013770210224996507 0.02393165951017779 -0.030076679274849524
leaf_weight=4.8176757395267495 7.5592407882213584 7.2764430195093164
leaf_count=20 31 31
internal_value=0.00144476 -0.0126103
internal_weight=19.6534 12.0941
internal_count=82 51
is_linear=0
shrinkage=0.05


Tree=24
num_leaves=3
num_cat=0
split_feature=1 2
split_gain=2.34316 5.32683
threshold=-0.84122813132759899 0.17873155699046608
decision_type=2 2
left_child=-1 -2
right_child=1 -3
leaf_value=0.03083921717478463 0.014209377254025761 -0.048502270071135625
leaf_weight=5.0198415368795422 9.2428577393293363 5.3440289646387091
leaf_count=21 38 23
internal_value=0.00137431 -0.00876556
internal_weight=19.6067 14.5869
internal_count=82 61
is_linear=0
shrinkage=0.05


Tree=25
num_leaves=3
num_cat=0
split_feature=1 6
split_gain=3.14039 6.77843
threshold=-0.92657358444526794 -0.11343717186847041
decision_type=2 2
left_child=-1 -2
right_child=1 -3
leaf_value=0.037233467073896291 -0.054850030685451058 0.016213069386985576
leaf_weight=4.8460472822189358 5.2257946431636837 9.3770209103822655
leaf_count=20 22 39
internal_value=0.00235646 -0.00921772
internal_weight=19.4489 14.6028
internal_count=81 61
is_linear=0
shrinkage=0.05


Tree=26
num_leaves=3
num_cat=0
split_feature=1 6
split_gain=2.8306 6.15477
threshold=-0.92657358444526794 -0.11343717186847041
decision_type=2 2
left_child=-1 -2
right_child=1 -3
leaf_value=0.035304142627618836 -0.052460138070562518 0.015384987132888692
leaf_weight=4.8550818413496044 5.1915360689163235 9.3873666077852196
leaf_count=20 22 39
internal_value=0.00223733 -0.00877461
internal_weight=19.434 14.5789
internal_count=81 61
is_linear=0
shrinkage=0.05


Tree=27
num_leaves=3
num_cat=0
split_feature=1 6
split_gain=2.55315 5.59365
threshold=-0.92657358444526794 -0.11343717186847041
decision_type=2 2
left_child=-1 -2
right_child=1 -3
leaf_value=0.033498336221499267 -0.050223214163064182 0.01460169002748566
leaf_weight=4.8608031421899822 5.1526174247264889 9.3961614519357628
leaf_count=20 22 39
internal_value=0.00212512 -0.0083568
internal_weight=19.4096 14.5488
internal_count=81 61
is_linear=0
shrinkage=0.05


Tree=28
num_leaves=3
num_cat=0
split_feature=9 1
split_gain=2.4283 3.73687
threshold=-0.64057344911396596 -0.60713545432821181
decision_type=2 2
left_child=-1 -2
right_child=1 -3
leaf_value=-0.025481176022846531 0.044980698749978898 -0.0081870110599974837
leaf_weight=5.6758880019187954 5.5659296661615381 8.1353123635053599
leaf_count=24 23 34
internal_value=0.00201925 0.0134116
internal_weight=19.3771 13.7012
internal_count=81 57
is_linear=0
shrinkage=0.05


Tree=29
num_leaves=3
num_cat=0
split_feature=14 14
split_gain=2.20275 4.30672
threshold=0.62077839019400349 -0.036455610430170891
decision_type=2 2
left_child=1 -1
right_child=-2 -3
leaf_value=0.016870201277687177 0.026495848998589158 -0.040483221487941756
leaf_weight=7.0781913846731195 6.1985614597797385 6.0888062715530404
leaf_count=29 26 26
internal_value=0.00191847 -0.00965171
internal_weight=19.3656 13.167
internal_count=81 55
is_linear=0
shrinkage=0.05


Tree=30
num_leaves=3
num_cat=0
split_feature=14 1
split_gain=4.58141 6.75555
threshold=-0.16420189599143173 -0.1340425004523054
decision_type=2 2
left_child=-1 -2
right_child=1 -3
leaf_value=0.039385033764243564 0.019317927322123726 -0.0537924253321495
leaf_weight=6.3588141500949886 7.2598708868026742 5.5945861935615513
leaf_count=26 31 24
internal_value=0.0046708 -0.0125016
internal_weight=19.2133 12.8545
internal_count=81 55
is_linear=0
shrinkage=0.05


Tree=31
num_leaves=3
num_cat=0
split_feature=14 1
split_gain=4.13906 6.14673
threshold=-0.16420189599143173 -0.1340425004523054
decision_type=2 2
left_child=-1 -2
right_child=1 -3
leaf_value=0.037432082206406127 0.018325431595585185 -0.051564655474581514
leaf_weight=6.3560963720083263 7.2701328843832025 5.545722991228101
leaf_count=26 31 24
internal_value=0.00444331 -0.0119177
internal_weight=19.172 12.8159
internal_count=81 55
is_linear=0
shrinkage=0.05


Tree=32
num_leaves=3
num_cat=0
split_feature=14 14
split_gain=3.74191 4.7859
threshold=-0.16420189599143173 0.62077839019400349
decision_type=2 2
left_child=-1 -2
right_child=1 -3
leaf_value=0.035599831315363865 -0.03841487236146484 0.023268341564051869
leaf_weight=6.3492325395345715 7.1712491959333402 5.6004616171121597
leaf_count=26 31 24
internal_value=0.004229 -0.0113665
internal_weight=19.1209 12.7717
internal_count=81 55
is_linear=0
shrinkage=0.05


Tree=33
num_leaves=3
num_cat=0
split_feature=14 1
split_gain=3.38444 5.55738
threshold=-0.16420189599143173 -0.1340425004523054
decision_type=2 2
left_child=-1 -2
right_child=1 -3
leaf_value=0.033876592424828288 0.017867187465500405 -0.048870241057501811
leaf_weight=6.3388520032167461 7.2515789717435846 5.4742436408996555
leaf_count=26 31 24
internal_value=0.00402716 -0.0108411
internal_weight=19.0647 12.7258
internal_count=81 55
is_linear=0
shrinkage=0.05


Tree=34
num_leaves=3
num_cat=0
split_feature=14 8
split_gain=3.06278 4.35045
threshold=-0.16420189599143173 0.32089389890623088
decision_type=2 2
left_child=-1 -2
right_child=1 -3
leaf_value=0.032252355561188759 -0.034106027187317062 0.025762308031518594
leaf_weight=6.3255098760128048 7.6454589366912824 5.0313793867826462
leaf_count=26 33 22
internal_value=0.00383512 -0.0103446
internal_weight=19.0023 12.6768
internal_count=81 55
is_linear=0
shrinkage=0.05


Tree=35
num_leaves=3
num_cat=0
split_feature=14 8
split_gain=5.29941 3.09305
threshold=0.62077839019400349 -0.33013561480206816
decision_type=2 2
left_child=1 -1
right_child=-2 -3
leaf_value=0.0078243025155983539 0.030940752727639645 -0.043023651813161118
leaf_weight=4.7301674932241449 6.5444775670766822 8.1329979449510574
leaf_count=20 28 35
internal_value=-0.00568899 -0.0243254
internal_weight=19.4076 12.8632
internal_count=83 55
is_linear=0
shrinkage=0.05


Tree=36
num_leaves=3
num_cat=0
split_feature=14 8
split_gain=4.78818 2.81452
threshold=0.62077839019400349 -0.33013561480206816
decision_type=2 2
left_child=1 -1
right_child=-2 -3
leaf_value=0.0074295331680989665 0.029335160941427109 -0.041120664514151598
leaf_weight=4.7323712557554254 6.5571939498186103 8.0851346403360367
leaf_count=20 28 35
internal_value=-0.00541688 -0.0231954
internal_weight=19.3747 12.8175
internal_count=83 55
is_linear=0
shrinkage=0.05


Tree=37
num_leaves=3
num_cat=0
split_feature=3 8
split_gain=2.4676 3.80272
threshold=-0.49823829438751593 0.21785109647725218
decision_type=2 2
left_child=-1 -2
right_child=1 -3
leaf_value=-0.035055552885915144 -0.013812262185057298 0.040038684062281109
leaf_weight=5.0864892154932049 9.1353166103363019 5.1132194548845282
leaf_count=22 39 22
internal_value=-0.00515968 0.00551265
internal_weight=19.335 14.2485
internal_count=83 61
is_linear=0
shrinkage=0.05


Tree=38
num_leaves=4
num_cat=0
split_feature=5 8 8
split_gain=2.31771 3.31374 2.78578
threshold=-0.21055412996731324 0.18431650976778677 -1.0000000180025095e-35
decision_type=2 2 2
left_child=2 -2 -1
right_child=1 -3 -4
leaf_value=0.039241869893899432 -0.049039744291576093 0.0090497749586910224 -0.015047045233977902
leaf_weight=4.8471758812665939 5.2486349493265134 4.6126387417316437 4.6107596457004565
leaf_count=20 23 20 20
internal_value=-0.00490778 -0.0218682 0.0127759
internal_weight=19.3192 9.86127 9.45794
internal_count=83 43 40
is_linear=0
shrinkage=0.05


Tree=39
num_leaves=3
num_cat=0
split_feature=14 15
split_gain=4.23403 2.69299
threshold=0.62077839019400349 0.34040325308699065
decision_type=2 2
left_child=1 -1
right_child=-2 -3
leaf_value=-0.0028199788477754704 0.027965604032758436 -0.0498471414471931
leaf_weight=7.6602934300899523 6.5540954470634452 5.0518397688865662
leaf_count=33 28 22
internal_value=-0.00467826 -0.0215087
internal_weight=19.2662 12.7121
internal_count=83 55
is_linear=0
shrinkage=0.05


Tree=40
num_leaves=3
num_cat=0
split_feature=1 2
split_gain=2.83051 3.30672
threshold=-0.84122813132759899 0.17873155699046608
decision_type=2 2
left_child=-1 -2
right_child=1 -3
leaf_value=0.029772337143723189 0.0045157333005445771 -0.048894740987577373
leaf_weight=4.9963930100202587 8.0496286302804929 4.5280144214630118
leaf_count=21 34 21
internal_value=-0.00206508 -0.0147123
internal_weight=17.574 12.5776
internal_count=76 55
is_linear=0
shrinkage=0.05


Tree=41
num_leaves=3
num_cat=0
split_feature=1 2
split_gain=2.56212 3.03445
threshold=-0.84122813132759899 0.17873155699046608
decision_type=2 2
left_child=-1 -2
right_child=1 -3
leaf_value=0.028326858229889142 0.0042881355682242604 -0.047092795707342872
leaf_weight=4.9889709800481823 8.0529413968324643 4.4677589684724799
leaf_count=21 34 21
internal_value=-0.00197293 -0.0140461
internal_weight=17.5097 12.5207
internal_count=76 55
is_linear=0
shrinkage=0.05


Tree=42
num_leaves=3
num_cat=0
split_feature=4 13
split_gain=2.42469 2.31755
threshold=-0.31594445794599951 -0.13711530504465
decision_type=2 2
left_child=-1 -2
right_child=1 -3
leaf_value=0.021954728945878136 -0.041938260898331248 0.0045484262965662207
leaf_weight=6.6185875087976482 4.8922865241765985 5.9319492876529667
leaf_count=28 21 27
internal_value=-0.00188523 -0.0164624
internal_weight=17.4428 10.8242
internal_count=76 48
is_linear=0
shrinkage=0.05


Tree=43
num_leaves=3
num_cat=0
split_feature=1 2
split_gain=2.32589 2.77113
threshold=-0.84122813132759899 0.17873155699046608
decision_type=2 2
left_child=-1 -2
right_child=1 -3
leaf_value=0.027141042373866244 0.004117199910529141 -0.045207986973999567
leaf_weight=4.9654455631971386 8.0504469722509366 4.4058199822902671
leaf_count=21 34 21
internal_value=-0.00179463 -0.0133293
internal_weight=17.4217 12.4563
internal_count=76 55
is_linear=0
shrinkage=0.05


Tree=44
num_leaves=3
num_cat=0
split_feature=1 11
split_gain=2.10618 2.57462
threshold=-0.84122813132759899 1.0000000180025095e-35
decision_type=2 2
left_child=-1 -2
right_child=1 -3
leaf_value=0.025836342784407853 -0.036040999390526851 0.0095418415061227502
leaf_weight=4.9556347280740765 6.0570326298475248 6.3405807167291641
leaf_count=21 27 28
internal_value=-0.00171525 -0.0127283
internal_weight=17.3532 12.3976
internal_count=76 55
is_linear=0
shrinkage=0.05


Tree=45
num_leaves=3
num_cat=0
split_feature=7 7
split_gain=2.0231 3.63994
threshold=-0.20618453159742936 0.24992221560320146
decision_type=2 2
left_child=-1 -2
right_child=1 -3
leaf_value=-0.01757445739129149 0.04738127964863266 -0.0093626556760729226
leaf_weight=7.2606980800628689 5.1402298957109434 6.2776805013418198
leaf_count=32 22 27
internal_value=0.00306083 0.0161829
internal_weight=18.6786 11.4179
internal_count=81 49
is_linear=0
shrinkage=0.05


Tree=46
num_leaves=3
num_cat=0
split_feature=8 3
split_gain=1.8545 4.24465
threshold=0.36088798632243407 0.098774386839590625
decision_type=2 2
left_child=1 -1
right_child=-2 -3
leaf_value=0.018818456760233027 0.026594434959709687 -0.038689841018574186
leaf_weight=6.9884768724441546 5.7276505380868903 5.9324029386043549
leaf_count=30 25 26
internal_value=0.00291241 -0.0075855
internal_weight=18.6485 12.9209
internal_count=81 56
is_linear=0
shrinkage=0.05


Tree=47
num_leaves=3
num_cat=0
split_feature=6 2
split_gain=1.87918 3.72965
threshold=-0.11343717186847041 1.0000000180025095e-35
decision_type=2 2
left_child=-1 -2
right_child=1 -3
leaf_value=-0.016711570042671986 0.040493802338866 -0.017873181056191362
leaf_weight=7.4408945739269283 6.4441320449113828 4.7577113211154938
leaf_count=33 27 21
internal_value=0.00276585 0.0157038
internal_weight=18.6427 11.2018
internal_count=81 48
is_linear=0
shrinkage=0.05


Tree=48
num_leaves=3
num_cat=0
split_feature=7 13
split_gain=1.8482 3.33337
threshold=-0.20618453159742936 -0.50648636000786074
decision_type=2 2
left_child=-1 -2
right_child=1 -3
leaf_value=-0.017144616930545125 -0.01692459563540381 0.037983528190407088
leaf_weight=7.2264351248741177 4.7264806628227243 6.6573335528373692
leaf_count=32 20 29
internal_value=0.00263193 0.0151861
internal_weight=18.6102 11.3838
internal_count=81 49
is_linear=0
shrinkage=0.05


Tree=49
num_leaves=3
num_cat=0
split_feature=6 2
split_gain=1.70209 3.38763
threshold=-0.11343717186847041 1.0000000180025095e-35
decision_type=2 2
left_child=-1 -2
right_child=1 -3
leaf_value=-0.016060976874121783 0.038483868896465732 -0.017218854588671739
leaf_weight=7.4202554821968105 6.4281276315450651 4.7437992841005325
leaf_count=33 27 21
internal_value=0.00250212 0.0148315
internal_weight=18.5922 11.1719
internal_count=81 48
is_linear=0
shrinkage=0.05


Tree=50
num_leaves=3
num_cat=0
split_feature=11 16
split_gain=3.95369 2.78983
threshold=-0.26533513931324293 0.34993972448505256
decision_type=2 2
left_child=-1 -2
right_child=1 -3
leaf_value=-0.02233087436140356 0.0036415742078343204 0.05275589331952061
leaf_weight=7.2143834978342083 6.7608130723237974 5.0518335551023483
leaf_count=31 30 22
internal_value=0.00683399 0.024646
internal_weight=19.027 11.8126
internal_count=83 52
is_linear=0
shrinkage=0.05


Tree=51
num_leaves=3
num_cat=0
split_feature=11 5
split_gain=3.57164 2.76591
threshold=-0.26533513931324293 -0.21055412996731324
decision_type=2 2
left_child=-1 -2
right_child=1 -3
leaf_value=-0.021280528568926791 0.042980395855365477 -0.0064962810339173997
leaf_weight=7.1925091296434429 7.1412330418825158 4.6732495129108402
leaf_count=31 31 21
internal_value=0.00649834 0.0234098
internal_weight=19.007 11.8145
internal_count=83 52
is_linear=0
shrinkage=0.05


Tree=52
num_leaves=4
num_cat=0
split_feature=5 2 1
split_gain=1.91947 3.40922 3.50404
threshold=0.65434350204284264 -0.64350876465866136 -0.28602957652457922
decision_type=2 2 2
left_child=1 -1 -3
right_child=-2 2 -4
leaf_value=-0.018644857665829739 -0.023076341029183448 0.063505325706440408 0.0031319915450609493
leaf_weight=5.0010770261287698 4.3234636634588233 4.6415114998817444 4.9841121733188629
leaf_count=21 20 20 22
internal_value=0.00619292 0.0148445 0.0322442
internal_weight=18.9502 14.6267 9.62562
internal_count=83 63 42
is_linear=0
shrinkage=0.05


Tree=53
num_leaves=3
num_cat=0
split_feature=11 16
split_gain=3.153 2.48027
threshold=-0.26533513931324293 0.34993972448505256
decision_type=2 2
left_child=-1 -2
right_child=1 -3
leaf_value=-0.020249694641894092 0.0019727223933010663 0.048432463553736343
leaf_weight=7.157942786812785 6.71197462081909 5.0220855176448822
leaf_count=31 30 22
internal_value=0.00590338 0.0218571
internal_weight=18.892 11.7341
internal_count=83 52
is_linear=0
shrinkage=0.05


Tree=54
num_leaves=4
num_cat=0
split_feature=5 2 1
split_gain=1.70875 3.04192 3.18649
threshold=0.65434350204284264 -0.64350876465866136 -0.28602957652457922
decision_type=2 2 2
left_child=1 -1 -3
right_child=-2 2 -4
leaf_value=-0.017866740761454763 -0.022066434298662757 0.060328202226794185 0.0025857368884258779
leaf_weight=4.9867632538080224 4.3026165962219229 4.5934361070394516 4.9790937453508377
leaf_count=21 20 20 22
internal_value=0.00561702 0.0137981 0.0302938
internal_weight=18.8619 14.5593 9.57253
internal_count=83 63 42
is_linear=0
shrinkage=0.05


Tree=55
num_leaves=3
num_cat=0
split_feature=10 5
split_gain=2.40845 2.22767
threshold=0.18786970312558002 0.05780171403574548
decision_type=2 2
left_child=1 -1
right_child=-2 -3
leaf_value=0.023029692620732203 -0.033553337587227582 -0.021769994936625171
leaf_weight=7.2527878433465975 5.7718272209167472 4.4943701848387718
leaf_count=31 26 21
internal_value=-0.00710526 0.00588968
internal_weight=17.519 11.7472
internal_count=78 52
is_linear=0
shrinkage=0.05


Tree=56
num_leaves=3
num_cat=0
split_feature=10 17
split_gain=2.18593 3.22927
threshold=0.18786970312558002 0.30801961620737001
decision_type=2 2
left_child=1 -1
right_child=-2 -3
leaf_value=0.026932410033767874 -0.032050978835053777 -0.026712183519169604
leaf_weight=7.0582098066806811 5.7410528659820548 4.6559538394212723
leaf_count=32 26 20
internal_value=-0.00677634 0.00561064
internal_weight=17.4552 11.7142
internal_count=78 52
is_linear=0
shrinkage=0.05


Tree=57
num_leaves=3
num_cat=0
split_feature=10 17
split_gain=1.98443 2.91505
threshold=0.18786970312558002 0.30801961620737001
decision_type=2 2
left_child=1 -1
right_child=-2 -3
leaf_value=0.025572727918735067 -0.030620703678387696 -0.025409736525451105
leaf_weight=7.0617146492004412 5.7095685005187979 4.6500270813703537
leaf_count=32 26 20
internal_value=-0.00645185 0.00533066
internal_weight=17.4213 11.7117
internal_count=78 52
is_linear=0
shrinkage=0.05


Tree=58
num_leaves=3
num_cat=0
split_feature=1 2
split_gain=1.93915 3.89666
threshold=-1.0745404589343337 -1.0000000180025095e-35
decision_type=2 2
left_child=-1 -2
right_child=1 -3
leaf_value=0.021605369307986001 0.0099977908333254636 -0.045337362081859116
leaf_weight=4.6218680292367962 6.7216096967458734 6.0406644940376255
leaf_count=20 29 29
internal_value=-0.00614407 -0.0161936
internal_weight=17.3841 12.7623
internal_count=78 58
is_linear=0
shrinkage=0.05


Tree=59
num_leaves=3
num_cat=0
split_feature=10 17
split_gain=1.83603 2.69965
threshold=0.18786970312558002 0.30801961620737001
decision_type=2 2
left_child=1 -1
right_child=-2 -3
leaf_value=0.025005876800500693 -0.029234631385519513 -0.024177146649271498
leaf_weight=7.0278018936514872 5.6579198390245429 4.6270398050546646
leaf_count=32 26 20
internal_value=-0.00586501 0.00547993
internal_weight=17.3128 11.6548
internal_count=78 52
is_linear=0
shrinkage=0.05


Tree=60
num_leaves=3
num_cat=0
split_feature=10 11
split_gain=5.13254 2.63186
threshold=-0.63364359553797389 -0.042466796325910716
decision_type=2 2
left_child=-1 -2
right_child=1 -3
leaf_value=-0.042007763775441687 -0.007812406361727791 0.037984364512335334
leaf_weight=4.7925892770290401 5.4357161670923242 7.4187169969081852
leaf_count=21 25 33
internal_value=0.00215352 0.0186184
internal_weight=17.647 12.8544
internal_count=79 58
is_linear=0
shrinkage=0.05


Tree=61
num_leaves=3
num_cat=0
split_feature=10 11
split_gain=4.65177 2.37594
threshold=-0.63364359553797389 -0.042466796325910716
decision_type=2 2
left_child=-1 -2
right_child=1 -3
leaf_value=-0.040140204204973863 -0.0074324262687782919 0.036102725317471766
leaf_weight=4.7654854357242611 5.4281329661607751 7.4151804596185658
leaf_count=21 25 33
internal_value=0.00204877 0.0177029
internal_weight=17.6088 12.8433
internal_count=79 58
is_linear=0
shrinkage=0.05


Tree=62
num_leaves=3
num_cat=0
split_feature=10 7
split_gain=4.21765 2.25754
threshold=-0.63364359553797389 -0.20618453159742936
decision_type=2 2
left_child=-1 -2
right_child=1 -3
leaf_value=-0.038371714652332495 -0.0075073494330164733 0.034908158135714372
leaf_weight=4.7366056293249157 5.4658127725124368 7.3631508722901318
leaf_count=21 25 33
internal_value=0.00194976 0.0168369
internal_weight=17.5656 12.829
internal_count=79 58
is_linear=0
shrinkage=0.05


Tree=63
num_leaves=3
num_cat=0
split_feature=14 14
split_gain=2.39946 3.9161
threshold=0.62077839019400349 -0.0097840681389136201
decision_type=2 2
left_child=1 -1
right_child=-2 -3
leaf_value=0.012813108599266765 0.031540144577844868 -0.044153358462410412
leaf_weight=7.6430595666170129 4.9031157940626136 4.9842310994863519
leaf_count=33 22 24
internal_value=0.00185425 -0.00967264
internal_weight=17.5304 12.6273
internal_count=79 57
is_linear=0
shrinkage=0.05


Tree=64
num_leaves=3
num_cat=0
split_feature=10 11
split_gain=3.84463 2.12587
threshold=-0.63364359553797389 -0.042466796325910716
decision_type=2 2
left_child=-1 -2
right_child=1 -3
leaf_value=-0.036964033893526024 -0.0078189106834164988 0.033446776885649315
leaf_weight=4.6886688470840481 5.4142644107341775 7.368702590465543
leaf_count=21 25 33
internal_value=0.00176363 0.0159686
internal_weight=17.4716 12.783
internal_count=79 58
is_linear=0
shrinkage=0.05


Tree=65
num_leaves=3
num_cat=0
split_feature=14 5
split_gain=2.67871 2.89048
threshold=0.62077839019400349 0.10407684884586811
decision_type=2 2
left_child=1 -1
right_child=-2 -3
leaf_value=0.0036973045516457584 0.027424375510974559 -0.046667242868878661
leaf_weight=7.5605556666851061 5.2662261426448813 4.5711890682578087
leaf_count=33 24 22
internal_value=-0.00235362 -0.0152798
internal_weight=17.398 12.1317
internal_count=79 55
is_linear=0
shrinkage=0.05


Tree=66
num_leaves=3
num_cat=0
split_feature=14 5
split_gain=2.4236 2.65733
threshold=0.62077839019400349 0.10407684884586811
decision_type=2 2
left_child=1 -1
right_child=-2 -3
leaf_value=0.0035116951292657448 0.026053640099891778 -0.044995342788022141
leaf_weight=7.5621155649423617 5.2661250084638587 4.5056763142347336
leaf_count=33 24 22
internal_value=-0.00224859 -0.0145991
internal_weight=17.3339 12.0678
internal_count=79 55
is_linear=0
shrinkage=0.05


Tree=67
num_leaves=3
num_cat=0
split_feature=14 5
split_gain=2.19319 2.44372
threshold=0.62077839019400349 0.10407684884586811
decision_type=2 2
left_child=1 -1
right_child=-2 -3
leaf_value=0.0033354564914494372 0.024757423300263905 -0.043394630193203845
leaf_weight=7.5635599642992037 5.2647800147533408 4.4399773702025414
leaf_count=33 24 22
internal_value=-0.00214849 -0.0139495
internal_weight=17.2683 12.0035
internal_count=79 55
is_linear=0
shrinkage=0.05


Tree=68
num_leaves=3
num_cat=0
split_feature=14 1
split_gain=1.98498 2.29183
threshold=0.62077839019400349 -0.49703427956791285
decision_type=2 2
left_child=1 -1
right_child=-2 -3
leaf_value=-0.040613551742060897 0.023530573321363036 0.0042592890535990474
leaf_weight=4.679778292775155 5.2623726427555075 7.2595370709896097
leaf_count=21 24 34
internal_value=-0.00205301 -0.0133292
internal_weight=17.2017 11.9393
internal_count=79 55
is_linear=0
shrinkage=0.05


Tree=69
num_leaves=3
num_cat=0
split_feature=14 5
split_gain=1.79387 2.17378
threshold=0.62077839019400349 0.10407684884586811
decision_type=2 2
left_child=1 -1
right_child=-2 -3
leaf_value=0.0034973336434577884 0.022368460150164086 -0.040864420761365088
leaf_weight=7.5677130371332186 5.2590637952089301 4.3480628505349159
leaf_count=33 24 22
internal_value=-0.00195502 -0.0126903
internal_weight=17.1748 11.9158
internal_count=79 55
is_linear=0
shrinkage=0.05


Tree=70
num_leaves=3
num_cat=0
split_feature=4 0
split_gain=1.51544 0.546722
threshold=-0.05699429147835066 0.12707832872448424
decision_type=2 2
left_child=-1 -2
right_child=1 -3
leaf_value=-0.0069144384360842305 0.035661400493347421 0.010606882263809205
leaf_weight=8.2569837570190447 4.3023489192128164 4.4084614515304565
leaf_count=37 20 20
internal_value=0.00843335 0.0229815
internal_weight=16.9678 8.71081
internal_count=77 40
is_linear=0
shrinkage=0.05


Tree=71
num_leaves=3
num_cat=0
split_feature=6 6
split_gain=1.37684 2.82593
threshold=-0.11343717186847041 0.58386347893642476
decision_type=2 2
left_child=-1 -2
right_child=1 -3
leaf_value=-0.010018753393341635 0.042977868354797083 -0.0092175854694495352
leaf_weight=6.5261354818940189 5.7039168775081617 4.7549807876348495
leaf_count=30 25 22
internal_value=0.00800287 0.019248
internal_weight=16.985 10.4589
internal_count=77 47
is_linear=0
shrinkage=0.05


Tree=72
num_leaves=3
num_cat=0
split_feature=6 6
split_gain=1.24444 2.55603
threshold=-0.11343717186847041 0.58386347893642476
decision_type=2 2
left_child=-1 -2
right_child=1 -3
leaf_value=-0.0095325520724087367 0.040908465527157031 -0.0087634603107891642
leaf_weight=6.5163044482469585 5.6930994391441327 4.751409500837326
leaf_count=30 25 22
internal_value=0.00761403 0.0183117
internal_weight=16.9608 10.4445
internal_count=77 47
is_linear=0
shrinkage=0.05


Tree=73
num_leaves=3
num_cat=0
split_feature=4 0
split_gain=1.36546 0.506616
threshold=-0.05699429147835066 0.12707832872448424
decision_type=2 2
left_child=-1 -2
right_child=1 -3
leaf_value=-0.0073625183842221291 0.033225850188619205 0.0091040543860999457
leaf_weight=8.2259450405836123 4.3107235655188543 4.3969572782516479
leaf_count=37 20 20
internal_value=0.00724558 0.0210455
internal_weight=16.9336 8.70768
internal_count=77 40
is_linear=0
shrinkage=0.05


Tree=74
num_leaves=3
num_cat=0
split_feature=4 12
split_gain=1.23032 1.18212
threshold=-0.05699429147835066 -0.04752486300396537
decision_type=2 2
left_child=-1 -2
right_child=1 -3
leaf_value=-0.0069950248717822868 0.037547536210427529 0.00069303413513636903
leaf_weight=8.2252200096845645 4.5596243292093277 4.1617613583803159
leaf_count=37 20 20
internal_value=0.00687756 0.0199609
internal_weight=16.9466 8.72139
internal_count=77 40
is_linear=0
shrinkage=0.05


Tree=75
num_leaves=3
num_cat=0
split_feature=3 8
split_gain=1.78558 2.43006
threshold=-0.49823829438751593 0.068828797758711119
decision_type=2 2
left_child=-1 -2
right_child=1 -3
leaf_value=-0.024922312351160051 -0.0083479394274083383 0.037199457885037028
leaf_weight=5.1671469658613232 7.2014503777027112 4.9352844953536987
leaf_count=23 33 23
internal_value=-0.000306556 0.0101735
internal_weight=17.3039 12.1367
internal_count=79 56
is_linear=0
shrinkage=0.05


Tree=76
num_leaves=3
num_cat=0
split_feature=3 8
split_gain=1.61624 2.19419
threshold=-0.49823829438751593 0.068828797758711119
decision_type=2 2
left_child=-1 -2
right_child=1 -3
leaf_value=-0.023766624603606824 -0.0079343156261524727 0.035356123335611181
leaf_weight=5.1479837670922306 7.1981119066476804 4.9330122470855713
leaf_count=23 33 23
internal_value=-0.000292266 0.00966935
internal_weight=17.2791 12.1311
internal_count=79 56
is_linear=0
shrinkage=0.05


Tree=77
num_leaves=3
num_cat=0
split_feature=3 8
split_gain=1.4631 1.98203
threshold=-0.49823829438751593 0.068828797758711119
decision_type=2 2
left_child=-1 -2
right_child=1 -3
leaf_value=-0.022665838181565458 -0.0075411816349547391 0.033617368306803896
leaf_weight=5.1286036819219616 7.1947805583477003 4.9288501888513565
leaf_count=23 33 23
internal_value=-0.000278589 0.00919179
internal_weight=17.2522 12.1236
internal_count=79 56
is_linear=0
shrinkage=0.05


Tree=78
num_leaves=3
num_cat=0
split_feature=3 8
split_gain=1.32456 1.79102
threshold=-0.49823829438751593 0.068828797758711119
decision_type=2 2
left_child=-1 -2
right_child=1 -3
leaf_value=-0.021616758300219929 -0.0071675054372825273 0.031974766794745667
leaf_weight=5.1091305539011982 7.1914715468883497 4.9230950325727463
leaf_count=23 33 23
internal_value=-0.000265503 0.00873906
internal_weight=17.2237 12.1146
internal_count=79 56
is_linear=0
shrinkage=0.05


Tree=79
num_leaves=3
num_cat=0
split_feature=10 10
split_gain=1.25007 2.61899
threshold=0.57644585294971196 -0.39114982567857459
decision_type=2 2
left_child=1 -1
right_child=-2 -3
leaf_value=-0.015271057564147379 -0.022858035777309892 0.030176417549035647
leaf_weight=6.2477916851639757 4.5112763345241538 6.4348081201314935
leaf_count=28 20 31
internal_value=-0.000252988 0.00778776
internal_weight=17.1939 12.6826
internal_count=79 59
is_linear=0
shrinkage=0.05


Tree=80
num_leaves=3
num_cat=0
split_feature=10 10
split_gain=1.55534 2.05082
threshold=-0.050534144572139124 0.57644585294971196
decision_type=2 2
left_child=-1 -2
right_child=1 -3
leaf_value=-0.012727239692624013 0.040899803763453056 -0.0069931994835356354
leaf_weight=8.4964402094483393 4.5070503205060941 4.4344876259565353
leaf_count=39 21 20
internal_value=0.00259147 0.0171476
internal_weight=17.438 8.94154
internal_count=80 41
is_linear=0
shrinkage=0.05


Tree=81
num_leaves=3
num_cat=0
split_feature=8 5
split_gain=2.08427 2.82513
threshold=1.0000000180025095e-35 -0.21055412996731324
decision_type=2 2
left_child=1 -1
right_child=-2 -3
leaf_value=0.013810180440250825 0.020375399189894318 -0.042203893585819247
leaf_weight=4.4939780086278915 8.4036772400140745 4.5102369487285632
leaf_count=20 39 21
internal_value=0.00246678 -0.0142474
internal_weight=17.4079 9.00421
internal_count=80 41
is_linear=0
shrinkage=0.05


Tree=82
num_leaves=3
num_cat=0
split_feature=8 5
split_gain=1.88405 2.57575
threshold=1.0000000180025095e-35 -0.21055412996731324
decision_type=2 2
left_child=1 -1
right_child=-2 -3
leaf_value=0.0131304750572668 0.019342245282463366 -0.040494978668735672
leaf_weight=4.4903737306594849 8.4097615480422956 4.466667443513872
leaf_count=20 39 21
internal_value=0.00234625 -0.0136113
internal_weight=17.3668 8.95704
internal_count=80 41
is_linear=0
shrinkage=0.05


Tree=83
num_leaves=3
num_cat=0
split_feature=8 5
split_gain=1.70335 2.34896
threshold=1.0000000180025095e-35 -0.21055412996731324
decision_type=2 2
left_child=1 -1
right_child=-2 -3
leaf_value=0.012484557331560031 0.018364587082418362 -0.038864249566323686
leaf_weight=4.4866552352905273 8.4144622236490232 4.422522962093355
leaf_count=20 39 21
internal_value=0.00223186 -0.013005
internal_weight=17.3236 8.90918
internal_count=80 41
is_linear=0
shrinkage=0.05


Tree=84
num_leaves=3
num_cat=0
split_feature=6 7
split_gain=1.57462 2.7713
threshold=0.58386347893642476 0.21089740387088959
decision_type=2 2
left_child=1 -1
right_child=-2 -3
leaf_value=0.032044927865083402 -0.024207342478016109 -0.014271116480410012
leaf_weight=7.032995745539667 4.2736459374427787 5.9722574353218079
leaf_count=33 20 27
internal_value=0.00212325 0.0107757
internal_weight=17.2789 13.0053
internal_count=80 60
is_linear=0
shrinkage=0.05


Tree=85
num_leaves=3
num_cat=0
split_feature=7 7
split_gain=1.8208 1.84402
threshold=0.34647604561384576 -0.20618453159742936
decision_type=2 2
left_child=1 -1
right_child=-2 -3
leaf_value=-0.00908328545549455 -0.024774409590163141 0.032857909825389185
leaf_weight=6.0352997630834588 6.2983523383736602 4.6321937218308458
leaf_count=28 29 22
internal_value=-0.00345719 0.00912903
internal_weight=16.9658 10.6675
internal_count=79 50
is_linear=0
shrinkage=0.05


Tree=86
num_leaves=3
num_cat=0
split_feature=7 6
split_gain=1.64911 1.73217
threshold=0.34647604561384576 0.25510767603367929
decision_type=2 2
left_child=1 -1
right_child=-2 -3
leaf_value=0.029406311294300477 -0.023624497576690034 -0.010940603106453691
leaf_weight=5.1806482523679751 6.275275118649005 5.4677571728825569
leaf_count=24 29 26
internal_value=-0.00329284 0.00868892
internal_weight=16.9237 10.6484
internal_count=79 50
is_linear=0
shrinkage=0.05


Tree=87
num_leaves=3
num_cat=0
split_feature=7 7
split_gain=1.49283 1.68829
threshold=0.34647604561384576 -0.20618453159742936
decision_type=2 2
left_child=1 -1
right_child=-2 -3
leaf_value=-0.0091536380075760877 -0.022528672574156926 0.031005149869122541
leaf_weight=6.0403664410114297 6.2520902380347243 4.6179756373167047
leaf_count=28 29 22
internal_value=-0.00313189 0.00824609
internal_weight=16.9104 10.6583
internal_count=79 50
is_linear=0
shrinkage=0.05


Tree=88
num_leaves=3
num_cat=0
split_feature=6 7
split_gain=1.35329 2.42626
threshold=0.58386347893642476 0.21089740387088959
decision_type=2 2
left_child=1 -1
right_child=-2 -3
leaf_value=0.023999148272360521 -0.027885597385688073 -0.020073189274765552
leaf_weight=7.2713277414441126 4.1222979724407187 5.4735007584095001
leaf_count=34 20 25
internal_value=-0.00298318 0.00507147
internal_weight=16.8671 12.7448
internal_count=79 59
is_linear=0
shrinkage=0.05


Tree=89
num_leaves=3
num_cat=0
split_feature=15 8
split_gain=1.32745 1.07994
threshold=0.14850772394760023 -0.20340807642103034
decision_type=2 2
left_child=1 -1
right_child=-2 -3
leaf_value=0.028804301577950699 -0.017291107651176304 -0.0065291187954748184
leaf_weight=4.2456887662410736 8.1739672943949682 4.4075538218021411
leaf_count=19 39 21
internal_value=-0.00284184 0.0108071
internal_weight=16.8272 8.65324
internal_count=79 40
is_linear=0
shrinkage=0.05


Tree=90
num_leaves=4
num_cat=0
split_feature=14 16 14
split_gain=1.82666 3.29406 1.8769
threshold=-0.16420189599143173 -0.46382535538473862 0.32272059242253409
decision_type=2 2 2
left_child=-1 -2 -3
right_child=1 2 -4
leaf_value=0.022957230907357448 -0.048727378255339536 -0.019672908769174019 0.028470025221613689
leaf_weight=5.8912981897592571 3.9134252369403848 3.6497147530317271 4.5463535338640213
leaf_count=26 18 18 22
internal_value=0.00012173 -0.0109878 0.00703194
internal_weight=18.0008 12.1095 8.19607
internal_count=84 58 40
is_linear=0
shrinkage=0.05


Tree=91
num_leaves=3
num_cat=0
split_feature=9 1
split_gain=1.66615 2.00754
threshold=-0.64057344911396596 -0.28602957652457922
decision_type=2 2
left_child=-1 -2
right_child=1 -3
leaf_value=-0.02490556021316729 0.029085603842556082 -0.010091199475309919
leaf_weight=4.8536610752344158 6.5065528079867372 6.5737202093005154
leaf_count=24 30 30
internal_value=0.000113034 0.00939662
internal_weight=17.9339 13.0803
internal_count=84 60
is_linear=0
shrinkage=0.05


Tree=92
num_leaves=4
num_cat=0
split_feature=14 16 14
split_gain=1.6498 2.93378 1.71023
threshold=-0.16420189599143173 -0.46382535538473862 0.32272059242253409
decision_type=2 2 2
left_child=-1 -2 -3
right_child=1 2 -4
leaf_value=0.021760240109783169 -0.046389949379797957 -0.01910732105751254 0.027012589201563533
leaf_weight=5.8988320827484158 3.8669036030769357 3.6197418570518458 4.5203089192509651
leaf_count=26 18 18 22
internal_value=0.000107017 -0.0105309 0.00650385
internal_weight=17.9058 12.007 8.14005
internal_count=84 58 40
is_linear=0
shrinkage=0.05


Tree=93
num_leaves=4
num_cat=0
split_feature=14 16 14
split_gain=1.49279 2.68079 1.54698
threshold=-0.16420189599143173 -0.46382535538473862 0.32272059242253409
decision_type=2 2 2
left_child=-1 -2 -3
right_child=1 2 -4
leaf_value=0.020687386950295057 -0.044582943406798511 -0.018241170165279774 0.025691648139394764
leaf_weight=5.8946158736944225 3.8235685825347909 3.6024889647960627 4.5152153372764587
leaf_count=26 18 18 22
internal_value=9.91241e-05 -0.0100639 0.00619507
internal_weight=17.8359 11.9413 8.1177
internal_count=84 58 40
is_linear=0
shrinkage=0.05


Tree=94
num_leaves=3
num_cat=0
split_feature=9 1
split_gain=1.47638 1.73377
threshold=-0.64057344911396596 -0.28602957652457922
decision_type=2 2
left_child=-1 -2
right_child=1 -3
leaf_value=-0.023584742648242008 0.027214649286015885 -0.0093604277321609804
leaf_weight=4.8037532716989544 6.4590771496295938 6.5015068575739834
leaf_count=24 30 30
internal_value=9.17203e-05 0.00886724
internal_weight=17.7643 12.9606
internal_count=84 60
is_linear=0
shrinkage=0.05


Tree=95
num_leaves=3
num_cat=0
split_feature=8 3
split_gain=2.18264 2.88616
threshold=0.36088798632243407 -0.044553501674369639
decision_type=2 2
left_child=1 -1
right_child=-2 -3
leaf_value=0.016975737842123629 0.02936336398388702 -0.032314783654990839
leaf_weight=5.756542995572091 5.618086799979209 6.1348614245653161
leaf_count=27 26 30
internal_value=0.00368033 -0.0084536
internal_weight=17.5095 11.8914
internal_count=83 57
is_linear=0
shrinkage=0.05


Tree=96
num_leaves=3
num_cat=0
split_feature=8 3
split_gain=1.97076 2.61151
threshold=0.36088798632243407 -0.044553501674369639
decision_type=2 2
left_child=1 -1
right_child=-2 -3
leaf_value=0.016123315068365379 0.02790194909724272 -0.030795352896932318
leaf_weight=5.7578057348728189 5.6167549043893805 6.1161583513021478
leaf_count=27 26 30
internal_value=0.00349923 -0.00804401
internal_weight=17.4907 11.874
internal_count=83 57
is_linear=0
shrinkage=0.05


Tree=97
num_leaves=3
num_cat=0
split_feature=8 3
split_gain=1.7799 2.36332
threshold=0.36088798632243407 -0.044553501674369639
decision_type=2 2
left_child=1 -1
right_child=-2 -3
leaf_value=0.015315184846592309 0.026520257288663487 -0.029351405781368706
leaf_weight=5.7585230618715295 5.6139821335673323 6.0966951251029977
leaf_count=27 26 30
internal_value=0.0033276 -0.00765517
internal_weight=17.4692 11.8552
internal_count=83 57
is_linear=0
shrinkage=0.05


Tree=98
num_leaves=3
num_cat=0
split_feature=8 3
split_gain=1.60786 2.13893
threshold=0.36088798632243407 -0.044553501674369639
decision_type=2 2
left_child=1 -1
right_child=-2 -3
leaf_value=0.014548782396698224 0.02521261263566876 -0.027978042426772643
leaf_weight=5.7587697952985772 5.6099914386868468 6.076685145497323
leaf_count=27 26 30
internal_value=0.00316483 -0.00728579
internal_weight=17.4454 11.8355
internal_count=83 57
is_linear=0
shrinkage=0.05


Tree=99
num_leaves=3
num_cat=0
split_feature=8 3
split_gain=1.45271 1.93601
threshold=0.36088798632243407 -0.044553501674369639
decision_type=2 2
left_child=1 -1
right_child=-2 -3
leaf_value=0.013821725537240415 0.023973943213740845 -0.026670877782571656
leaf_weight=5.7586124092340478 5.6049790531396857 6.0563125461339959
leaf_count=27 26 30
internal_value=0.00301036 -0.00693472
internal_weight=17.4199 11.8149
internal_count=83 57
is_linear=0
shrinkage=0.05


end of trees

feature_importances:
Column_14=28
Column_8=24
Column_5=23
Column_1=22
Column_10=15
Column_2=14
Column_6=13
Column_7=12
Column_3=11
Column_11=10
Column_12=10
Column_0=7
Column_16=5
Column_4=4
Column_9=3
Column_13=3
Column_17=3
Column_15=2

parameters:
[boosting: gbdt]
[objective: binary]
[metric: auc]
[tree_learner: serial]
[device_type: cpu]
[data_sample_strategy: bagging]
[data: ]
[valid: ]
[num_iterations: 100]
[learning_rate: 0.05]
[num_leaves: 31]
[num_threads: 0]
[seed: 0]
[deterministic: 0]
[force_col_wise: 0]
[force_row_wise: 0]
[histogram_pool_size: -1]
[max_depth: -1]
[min_data_in_leaf: 20]
[min_sum_hessian_in_leaf: 0.001]
[bagging_fraction: 0.8]
[pos_bagging_fraction: 1]
[neg_bagging_fraction: 1]
[bagging_freq: 5]
[bagging_seed: 3]
[bagging_by_query: 0]
[feature_fraction: 0.9]
[feature_fraction_bynode: 1]
[feature_fraction_seed: 2]
[extra_trees: 0]
[extra_seed: 6]
[early_stopping_round: 0]
[early_stopping_min_delta: 0]
[first_metric_only: 0]
[max_delta_step: 0]
[lambda_l1: 0]
[lambda_l2: 0]
[linear_lambda: 0]
[min_gain_to_split: 0]
[drop_rate: 0.1]
[max_drop: 50]
[skip_drop: 0.5]
[xgboost_dart_mode: 0]
[uniform_drop: 0]
[drop_seed: 4]
[top_rate: 0.2]
[other_rate: 0.1]
[min_data_per_group: 100]
[max_cat_threshold: 32]
[cat_l2: 10]
[cat_smooth: 10]
[max_cat_to_onehot: 4]
[top_k: 20]
[monotone_constraints: ]
[monotone_constraints_method: basic]
[monotone_penalty: 0]
[feature_contri: ]
[forcedsplits_filename: ]
[refit_decay_rate: 0.9]
[cegb_tradeoff: 1]
[cegb_penalty_split: 0]
[cegb_penalty_feature_lazy: ]
[cegb_penalty_feature_coupled: ]
[path_smooth: 0]
[interaction_constraints: ]
[verbosity: -1]
[saved_feature_importance_type: 0]
[use_quantized_grad: 0]
[num_grad_quant_bins: 4]
[quant_train_renew_leaf: 0]
[stochastic_rounding: 1]
[linear_tree: 0]
[max_bin: 255]
[max_bin_by_feature: ]
[min_data_in_bin: 3]
[bin_construct_sample_cnt: 200000]
[data_random_seed: 1]
[is_enable_sparse: 1]
[enable_bundle: 1]
[use_missing: 1]
[zero_as_missing: 0]
[feature_pre_filter: 1]
[pre_partition: 0]
[two_round: 0]
[header: 0]
[label_column: ]
[weight_column: ]
[group_column: ]
[ignore_column: ]
[categorical_feature: ]
[forcedbins_filename: ]
[precise_float_parser: 0]
[parser_config_file: ]
[objective_seed: 5]
[num_class: 1]
[is_unbalance: 0]
[scale_pos_weight: 1]
[sigmoid: 1]
[boost_from_average: 1]
[reg_sqrt: 0]
[alpha: 0.9]
[fair_c: 1]
[poisson_max_delta_step: 0.7]
[tweedie_variance_power: 1.5]
[lambdarank_truncation_level: 30]
[lambdarank_norm: 1]
[label_gain: ]
[lambdarank_position_bias_regularization: 0]
[eval_at: ]
[multi_error_top_k: 1]
[auc_mu_weights: ]
[num_machines: 1]
[local_listen_port: 12400]
[time_out: 120]
[machine_list_filename: ]
[machines: ]
[gpu_platform_id: -1]
[gpu_device_id: -1]
[gpu_use_dp: 0]
[num_gpu: 1]

end of parameters

pandas_categorical:null
